{
  "hint_classes": [
    "adaptive_plan",
    "answer_ready",
    "cards_due",
    "mastery_stale",
    "quiz_failed",
    "safe_default",
    "sm2_due",
    "tutor_resume"
  ],
  "feature_dim": 14,
  "mean": [
    194.0668,
    0.6549999999999998,
    0.4425,
    30.847099999999987,
    14.35,
    2.67,
    12.06,
    9.77,
    0.16,
    0.5308700000000001,
    0.45352000000000003,
    6.04,
    0.12,
    0.5285714285714285
  ],
  "std": [
    101.6478291345172,
    0.19110316585551382,
    0.2944949405337892,
    13.169335768747034,
    4.932291556670186,
    1.902918810669546,
    7.504425361078621,
    6.251167890882469,
    0.36660605559646736,
    0.23452286263816582,
    0.2904564160076344,
    3.8701937935974207,
    0.3249615361854386,
    0.30937725468153876
  ],
  "W": [
    [
      -0.666311187174628,
      -0.07435770915426854,
      0.07406320450713459,
      0.1828811846720867,
      0.42133623693318223,
      0.13882045730466935,
      0.5888565841532077,
      0.4249795418673325,
      -0.1624325116301866,
      0.6796003968733182,
      0.11439805801249181,
      0.04062519195226237,
      -0.15507888629452266,
      -0.14067084089218795
    ],
    [
      0.2119413838793416,
      -0.1731933700664926,
      0.5780336602678737,
      -0.4150778533659753,
      -0.2464396585726177,
      -0.29236262043972094,
      -0.503602057020894,
      -0.31825818523788074,
      -0.1593685904439506,
      -0.09878788138082922,
      -0.3778693688633746,
      0.11112198270978733,
      -0.1789244028881551,
      0.05076214265264337
    ],
    [
      0.741584087278757,
      0.19220115648119454,
      -0.14063216054223093,
      0.32779967846741537,
      0.2016640984196389,
      0.30710338559445216,
      1.243532687309561,
      -0.43742784165885484,
      -0.8309636740042632,
      -0.32255419575295374,
      0.1455423379771134,
      -0.09560037651771115,
      0.10448680681582082,
      0.29009394316722387
    ],
    [
      -0.12647561190803083,
      -0.4538596771498544,
      -0.24563869744586583,
      -0.2560026745717441,
      0.2460746511129909,
      0.16608627518344335,
      -0.2789087525446555,
      -0.17786226736001565,
      -0.07230141647744888,
      0.10429062283414242,
      0.45269115282186545,
      0.09529994960566028,
      -0.16248736767009167,
      0.2823794988585101
    ],
    [
      0.10949069916082793,
      -0.11807142203787982,
      -0.1309573547483406,
      -0.09053249256221832,
      -0.03928641294808634,
      -0.02638623333988432,
      0.26217763229848884,
      0.012013125065348055,
      1.6704815123004866,
      -0.14473303582362543,
      0.15257291737980974,
      -0.02851067159779095,
      -0.16719468222037695,
      -0.11668886241202385
    ],
    [
      0.07057054760841203,
      0.3060296426098502,
      -0.46474850085327896,
      0.097595232674208,
      -0.36359072047664154,
      -0.39131513911289173,
      -0.3153326873503239,
      -0.39677403264683775,
      -0.0598701515792936,
      -0.06859661223426804,
      -0.13439767796842653,
      -0.2796540436634108,
      -0.09750972027379542,
      0.04411975673456276
    ],
    [
      -0.5583292360158935,
      -0.08751555291531671,
      -0.0856533499389578,
      0.12843237603017155,
      -0.38433228668106545,
      -0.2494944845707312,
      -0.7591313317520485,
      1.1737456235160504,
      -0.3518019834833552,
      -0.05603880174872775,
      -0.08604371738387506,
      -0.1304164890620282,
      0.048068416871808045,
      -0.06015393005371293
    ],
    [
      0.2175293171712123,
      0.4087669322327681,
      0.41553319875366546,
      0.024904548656056156,
      0.16457409221260055,
      0.34754835938066275,
      -0.23759207509333657,
      -0.28041596354513926,
      -0.03374318468198642,
      -0.09318049276705491,
      -0.2668937019756038,
      0.2871344565732309,
      0.6086398356593139,
      -0.3498417080550156
    ]
  ],
  "b": [
    -0.5988421907200071,
    -1.0230865304686785,
    3.710817520263528,
    -1.2566181129986573,
    0.8016621398464687,
    -1.236742262816763,
    1.0280455169478797,
    -1.425236080053724
  ],
  "train_acc_approx": 0.93,
  "source_cases": "tests/eval/ssr_ml_reranking_test_cases.json"
}